<?xml version="1.0"?>
<opencv_storage>
<cascade>
  <stageType>BOOST</stageType>
  <featureType>HAAR</featureType>
  <height>30</height>
  <width>30</width>
  <stageParams>
    <boostType>RAB</boostType>
    <minHitRate>9.9500000476837158e-01</minHitRate>
    <maxFalseAlarm>3.4999999403953552e-01</maxFalseAlarm>
    <weightTrimRate>9.4999999999999996e-01</weightTrimRate>
    <maxDepth>2</maxDepth>
    <maxWeakCount>70</maxWeakCount></stageParams>
  <featureParams>
    <maxCatCount>0</maxCatCount>
    <featSize>1</featSize>
    <mode>BASIC</mode></featureParams>
  <stageNum>9</stageNum>
  <stages>
    <!-- stage 0 -->
    <_>
      <maxWeakCount>2</maxWeakCount>
      <stageThreshold>-7.1580415964126587e-01</stageThreshold>
      <weakClassifiers>
        <_>
          <internalNodes>
            1 2 25 -3.6169186234474182e-02 0 -1 4
            -6.8309098482131958e-02 -2 -3 7 1.7543698847293854e-01</internalNodes>
          <leafValues>
            -8.9587974548339844e-01 1.2211735248565674e+00
            -1.5604476928710938e+00 5.4930615425109863e-01</leafValues></_>
        <_>
          <internalNodes>
            1 2 109 -3.8874545134603977e-03 0 -1 60
            -4.9318344099447131e-04 -2 -3 45 7.6508400961756706e-03</internalNodes>
          <leafValues>
            -1.6440908908843994e+00 8.4464359283447266e-01
            -1.7918016910552979e+00 1.0584487915039062e+00</leafValues></_></weakClassifiers></_>
    <!-- stage 1 -->
    <_>
      <maxWeakCount>4</maxWeakCount>
      <stageThreshold>-4.2201349139213562e-01</stageThreshold>
      <weakClassifiers>
        <_>
          <internalNodes>
            1 2 17 -8.7820127606391907e-02 0 -1 20
            -7.1483124047517776e-03 -2 -3 2 3.7266400456428528e-01</internalNodes>
          <leafValues>
            -1.0797420740127563e+00 9.8305642604827881e-01
            -9.5379567146301270e-01 8.7459993362426758e-01</leafValues></_>
        <_>
          <internalNodes>
            1 2 113 -4.3798536062240601e-03 0 -1 32
            3.0550451483577490e-03 -2 -3 57 -8.3005100488662720e-02</internalNodes>
          <leafValues>
            -8.9563590288162231e-01 8.8678073883056641e-01
            5.3280067443847656e-01 -1.0533990859985352e+00</leafValues></_>
        <_>
          <internalNodes>
            1 2 81 1.4505360741168261e-04 0 -1 58
            -1.7255225684493780e-03 -2 -3 80 9.1735050082206726e-03</internalNodes>
          <leafValues>
            6.8783211708068848e-01 -9.5708042383193970e-01
            1.2656261920928955e+00 -1.5365288257598877e+00</leafValues></_>
        <_>
          <internalNodes>
            1 2 98 -3.9710185956209898e-04 0 -1 33
            2.9736816883087158e-02 -2 -3 91 2.7189179672859609e-04</internalNodes>
          <leafValues>
            -5.7564578056335449e+00 1.0546284914016724e+00
            -1.0155899524688721e+00 6.0208189487457275e-01</leafValues></_></weakClassifiers></_>
    <!-- stage 2 -->
    <_>
      <maxWeakCount>5</maxWeakCount>
      <stageThreshold>-9.2563247680664062e-01</stageThreshold>
      <weakClassifiers>
        <_>
          <internalNodes>
            1 2 11 3.6020606756210327e-02 0 -1 64
            -1.9960746169090271e-02 -2 -3 42 -6.3300097826868296e-04</internalNodes>
          <leafValues>
            2.9096075892448425e-01 -8.3490055799484253e-01
            -6.7727285623550415e-01 9.7295504808425903e-01</leafValues></_>
        <_>
          <internalNodes>
            1 2 74 2.0647121709771454e-04 0 -1 92
            -2.6493213954381645e-04 -2 -3 35 -1.2164691463112831e-02</internalNodes>
          <leafValues>
            7.9373300075531006e-01 -8.3416378498077393e-01
            -1.0812975168228149e+00 7.7683645486831665e-01</leafValues></_>
        <_>
          <internalNodes>
            1 2 14 4.7804238274693489e-03 0 -1 96
            -1.0714161396026611e-01 -2 -3 39 -1.3365773484110832e-02</internalNodes>
          <leafValues>
            5.6058001518249512e-01 -9.0830892324447632e-01
            -1.4195303916931152e+00 7.6331543922424316e-01</leafValues></_>
        <_>
          <internalNodes>
            1 2 94 2.2826605709269643e-04 0 -1 77 9.4040049589239061e-05
            -2 -3 69 -3.6673429422080517e-03</internalNodes>
          <leafValues>
            -9.3340969085693359e-01 6.4316338300704956e-01
            -8.4876924753189087e-01 1.1860780715942383e+00</leafValues></_>
        <_>
          <internalNodes>
            1 2 116 2.2048909158911556e-05 0 -1 23
            2.9674065299332142e-03 -2 -3 97 1.1295432923361659e-03</internalNodes>
          <leafValues>
            -8.9432948827743530e-01 1.5438972711563110e+00
            9.4692444801330566e-01 -1.1431399583816528e+00</leafValues></_></weakClassifiers></_>
    <!-- stage 3 -->
    <_>
      <maxWeakCount>5</maxWeakCount>
      <stageThreshold>-1.0951194763183594e+00</stageThreshold>
      <weakClassifiers>
        <_>
          <internalNodes>
            1 2 10 1.0404687374830246e-02 0 -1 3 5.9870839118957520e-01
            -2 -3 30 -1.4991868287324905e-02</internalNodes>
          <leafValues>
            -6.8562823534011841e-01 7.1754229068756104e-01
            -5.7564578056335449e+00 8.1134158372879028e-01</leafValues></_>
        <_>
          <internalNodes>
            1 2 108 -2.4246502667665482e-02 0 -1 111
            -1.0997970402240753e-01 -2 -3 5 3.5350732505321503e-03</internalNodes>
          <leafValues>
            -7.1218788623809814e-01 6.6433006525039673e-01
            -8.6653846502304077e-01 1.0322018861770630e+00</leafValues></_>
        <_>
          <internalNodes>
            1 2 13 5.7885306887328625e-03 0 -1 1 7.6287671923637390e-02
            -2 -3 46 -3.1261987984180450e-02</internalNodes>
          <leafValues>
            -7.0687979459762573e-01 5.0917655229568481e-01
            -5.7564578056335449e+00 8.4809064865112305e-01</leafValues></_>
        <_>
          <internalNodes>
            1 2 66 1.9811271340586245e-04 0 -1 8 2.2117234766483307e-02
            -2 -3 105 3.4426965285092592e-03</internalNodes>
          <leafValues>
            -7.1246767044067383e-01 7.5618338584899902e-01
            7.1400135755538940e-01 -9.7778207063674927e-01</leafValues></_>
        <_>
          <internalNodes>
            1 2 101 3.8906321860849857e-03 0 -1 78
            -2.7116635465063155e-04 -2 -3 50 -1.7149562016129494e-02</internalNodes>
          <leafValues>
            5.7523977756500244e-01 -9.5324486494064331e-01
            -9.2711043357849121e-01 7.7074170112609863e-01</leafValues></_></weakClassifiers></_>
    <!-- stage 4 -->
    <_>
      <maxWeakCount>4</maxWeakCount>
      <stageThreshold>-4.5073559880256653e-01</stageThreshold>
      <weakClassifiers>
        <_>
          <internalNodes>
            1 2 18 -4.9416191875934601e-02 0 -1 16
            5.9192837215960026e-03 -2 -3 104 -1.9643234554678202e-03</internalNodes>
          <leafValues>
            1.0238463878631592e+00 -8.6730051040649414e-01
            7.3316854238510132e-01 -6.5212595462799072e-01</leafValues></_>
        <_>
          <internalNodes>
            1 2 12 7.5477972626686096e-02 0 -1 79 6.5884634386748075e-04
            -2 -3 61 -1.0842140763998032e-02</internalNodes>
          <leafValues>
            -8.8697314262390137e-01 5.9026724100112915e-01
            -8.6827230453491211e-01 5.6138223409652710e-01</leafValues></_>
        <_>
          <internalNodes>
            1 2 54 9.1806883574463427e-05 0 -1 62 2.9012776911258698e-02
            -2 -3 26 -2.6440871879458427e-03</internalNodes>
          <leafValues>
            -8.3253079652786255e-01 9.0816020965576172e-01
            -7.4809533357620239e-01 7.6058584451675415e-01</leafValues></_>
        <_>
          <internalNodes>
            1 2 89 -2.0394442602992058e-02 0 -1 40
            -3.3552604727447033e-03 -2 -3 83 7.9049348831176758e-02</internalNodes>
          <leafValues>
            -9.9252039194107056e-01 7.8016805648803711e-01
            -9.0540313720703125e-01 1.4333462715148926e+00</leafValues></_></weakClassifiers></_>
    <!-- stage 5 -->
    <_>
      <maxWeakCount>4</maxWeakCount>
      <stageThreshold>-1.0791274309158325e+00</stageThreshold>
      <weakClassifiers>
        <_>
          <internalNodes>
            1 2 48 -2.2239875048398972e-02 0 -1 36
            6.1327856034040451e-02 -2 -3 70 4.4652988435700536e-04</internalNodes>
          <leafValues>
            -6.4964151382446289e-01 1.3370742797851562e+00
            -8.0078190565109253e-01 4.2364892363548279e-01</leafValues></_>
        <_>
          <internalNodes>
            1 2 47 1.6121068620122969e-04 0 -1 72
            -7.1855215355753899e-03 -2 -3 112 -2.0876461640000343e-03</internalNodes>
          <leafValues>
            8.7473106384277344e-01 -7.8751218318939209e-01
            7.8834784030914307e-01 -9.2505306005477905e-01</leafValues></_>
        <_>
          <internalNodes>
            1 2 53 3.1070524710230529e-04 0 -1 71 3.4723307471722364e-03
            -2 -3 99 3.3796479692682624e-04</internalNodes>
          <leafValues>
            -8.6103928089141846e-01 3.8796022534370422e-01
            8.7667226791381836e-01 -8.5867059230804443e-01</leafValues></_>
        <_>
          <internalNodes>
            1 2 87 1.4141538122203201e-04 0 -1 43
            -6.4286440610885620e-02 -2 -3 41 -6.6832955926656723e-03</internalNodes>
          <leafValues>
            7.3003721237182617e-01 -7.6765030622482300e-01
            -9.1011685132980347e-01 8.4263068437576294e-01</leafValues></_></weakClassifiers></_>
    <!-- stage 6 -->
    <_>
      <maxWeakCount>5</maxWeakCount>
      <stageThreshold>-1.0600032806396484e+00</stageThreshold>
      <weakClassifiers>
        <_>
          <internalNodes>
            1 2 0 3.5431006550788879e-01 0 -1 21 -7.4092373251914978e-02
            -2 -3 38 -2.1431080996990204e-02</internalNodes>
          <leafValues>
            4.9662590026855469e-01 -7.0663547515869141e-01
            -1.0074515342712402e+00 8.8888663053512573e-01</leafValues></_>
        <_>
          <internalNodes>
            1 2 86 -7.0223491638898849e-04 0 -1 106
            -3.4987702965736389e-02 -2 -3 75 6.8023400381207466e-03</internalNodes>
          <leafValues>
            -1.9090086221694946e+00 5.4701495170593262e-01
            -1.0863457918167114e+00 5.7645457983016968e-01</leafValues></_>
        <_>
          <internalNodes>
            1 2 100 -8.6168227426242083e-05 0 -1 52
            -2.0992732606828213e-03 -2 -3 31 1.1608870700001717e-02</internalNodes>
          <leafValues>
            -9.5192337036132812e-01 7.6775366067886353e-01
            -6.4114576578140259e-01 9.3733268976211548e-01</leafValues></_>
        <_>
          <internalNodes>
            1 2 82 4.4056243496015668e-04 0 -1 93
            -5.2208476699888706e-04 -2 -3 76 4.7279233112931252e-03</internalNodes>
          <leafValues>
            4.3190485239028931e-01 -7.6504874229431152e-01
            9.5138859748840332e-01 -9.0451228618621826e-01</leafValues></_>
        <_>
          <internalNodes>
            1 2 73 4.8033962957561016e-04 0 -1 88
            -6.2940292991697788e-03 -2 -3 65 1.7963146092370152e-03</internalNodes>
          <leafValues>
            4.9620655179023743e-01 -1.0897103548049927e+00
            1.0188981294631958e+00 -1.0045291185379028e+00</leafValues></_></weakClassifiers></_>
    <!-- stage 7 -->
    <_>
      <maxWeakCount>5</maxWeakCount>
      <stageThreshold>-1.0665524005889893e+00</stageThreshold>
      <weakClassifiers>
        <_>
          <internalNodes>
            1 2 85 -1.4367899298667908e-01 0 -1 24
            -4.5705467462539673e-02 -2 -3 29 -3.9373971521854401e-03</internalNodes>
          <leafValues>
            -5.9479200839996338e-01 8.2111388444900513e-01
            5.1804596185684204e-01 -6.8922561407089233e-01</leafValues></_>
        <_>
          <internalNodes>
            1 2 67 1.6497165779583156e-04 0 -1 56 4.6010623918846250e-04
            -2 -3 44 -4.3787192553281784e-03</internalNodes>
          <leafValues>
            -8.2429826259613037e-01 3.2063344120979309e-01
            -9.0622395277023315e-01 6.1709123849868774e-01</leafValues></_>
        <_>
          <internalNodes>
            1 2 103 3.7328223697841167e-05 0 -1 51
            -1.4997359830886126e-03 -2 -3 34 -4.5645083300769329e-03</internalNodes>
          <leafValues>
            8.8927018642425537e-01 -7.2519433498382568e-01
            -9.0216547250747681e-01 7.1944135427474976e-01</leafValues></_>
        <_>
          <internalNodes>
            1 2 49 -2.6117670349776745e-03 0 -1 107
            -5.8416044339537621e-03 -2 -3 37 -5.2142543718218803e-03</internalNodes>
          <leafValues>
            -1.1775739192962646e+00 6.0617488622665405e-01
            6.2078225612640381e-01 -1.0681922435760498e+00</leafValues></_>
        <_>
          <internalNodes>
            1 2 110 1.1862675455631688e-04 0 -1 115
            -9.1827270807698369e-05 -2 -3 6 9.9635496735572815e-04</internalNodes>
          <leafValues>
            5.0642371177673340e-01 -8.7539857625961304e-01
            7.6810342073440552e-01 -9.5682835578918457e-01</leafValues></_></weakClassifiers></_>
    <!-- stage 8 -->
    <_>
      <maxWeakCount>5</maxWeakCount>
      <stageThreshold>-1.0328918695449829e+00</stageThreshold>
      <weakClassifiers>
        <_>
          <internalNodes>
            1 2 102 -2.1089879737701267e-04 0 -1 114
            9.1508415061980486e-04 -2 -3 22 3.8911707699298859e-02</internalNodes>
          <leafValues>
            6.7403656244277954e-01 -1.5455212593078613e+00
            -6.5891325473785400e-01 7.5203871726989746e-01</leafValues></_>
        <_>
          <internalNodes>
            1 2 90 9.5386756584048271e-05 0 -1 59
            -1.3504453934729099e-02 -2 -3 15 1.9511457532644272e-02</internalNodes>
          <leafValues>
            8.6265951395034790e-01 -7.2803276777267456e-01
            6.4496010541915894e-01 -1.8541076183319092e+00</leafValues></_>
        <_>
          <internalNodes>
            1 2 84 -3.4333555959165096e-05 0 -1 9 2.4754211306571960e-02
            -2 -3 95 -4.1337544098496437e-03</internalNodes>
          <leafValues>
            -1.0431479215621948e+00 7.2935414314270020e-01
            6.9692695140838623e-01 -5.4160815477371216e-01</leafValues></_>
        <_>
          <internalNodes>
            1 2 28 1.0165212675929070e-02 0 -1 19 2.5208368897438049e-03
            -2 -3 63 -7.5060511007905006e-03</internalNodes>
          <leafValues>
            6.0225534439086914e-01 -8.9893585443496704e-01
            9.8980116844177246e-01 -1.5220497846603394e+00</leafValues></_>
        <_>
          <internalNodes>
            1 2 27 2.5376424193382263e-02 0 -1 55 3.5865433164872229e-04
            -2 -3 68 -9.7240127623081207e-02</internalNodes>
          <leafValues>
            -9.4512814283370972e-01 2.9809096455574036e-01
            -1.7948011159896851e+00 1.1170104742050171e+00</leafValues></_></weakClassifiers></_></stages>
  <features>
    <_>
      <rects>
        <_>
          0 0 18 27 -1.</_>
        <_>
          9 0 9 27 2.</_></rects>
      <tilted>0</tilted></_>
    <_>
      <rects>
        <_>
          0 1 12 28 -1.</_>
        <_>
          0 1 6 14 2.</_>
        <_>
          6 15 6 14 2.</_></rects>
      <tilted>0</tilted></_>
    <_>
      <rects>
        <_>
          0 1 30 13 -1.</_>
        <_>
          10 1 10 13 3.</_></rects>
      <tilted>0</tilted></_>
    <_>
      <rects>
        <_>
          0 1 30 24 -1.</_>
        <_>
          10 1 10 24 3.</_></rects>
      <tilted>0</tilted></_>
    <_>
      <rects>
        <_>
          0 2 21 28 -1.</_>
        <_>
          7 2 7 28 3.</_></rects>
      <tilted>0</tilted></_>
    <_>
      <rects>
        <_>
          0 3 7 2 -1.</_>
        <_>
          0 4 7 1 2.</_></rects>
      <tilted>0</tilted></_>
    <_>
      <rects>
        <_>
          0 7 2 6 -1.</_>
        <_>
          0 10 2 3 2.</_></rects>
      <tilted>0</tilted></_>
    <_>
      <rects>
        <_>
          0 7 30 5 -1.</_>
        <_>
          10 7 10 5 3.</_></rects>
      <tilted>0</tilted></_>
    <_>
      <rects>
        <_>
          0 7 26 1 -1.</_>
        <_>
          13 7 13 1 2.</_></rects>
      <tilted>0</tilted></_>
    <_>
      <rects>
        <_>
          0 9 24 6 -1.</_>
        <_>
          0 9 12 3 2.</_>
        <_>
          12 12 12 3 2.</_></rects>
      <tilted>0</tilted></_>
    <_>
      <rects>
        <_>
          0 11 4 10 -1.</_>
        <_>
          2 11 2 10 2.</_></rects>
      <tilted>0</tilted></_>
    <_>
      <rects>
        <_>
          0 14 30 9 -1.</_>
        <_>
          0 17 30 3 3.</_></rects>
      <tilted>0</tilted></_>
    <_>
      <rects>
        <_>
          0 16 16 14 -1.</_>
        <_>
          8 16 8 14 2.</_></rects>
      <tilted>0</tilted></_>
    <_>
      <rects>
        <_>
          0 16 11 6 -1.</_>
        <_>
          0 18 11 2 3.</_></rects>
      <tilted>0</tilted></_>
    <_>
      <rects>
        <_>
          0 20 6 9 -1.</_>
        <_>
          3 20 3 9 2.</_></rects>
      <tilted>0</tilted></_>
    <_>
      <rects>
        <_>
          0 20 11 6 -1.</_>
        <_>
          0 22 11 2 3.</_></rects>
      <tilted>0</tilted></_>
    <_>
      <rects>
        <_>
          0 21 26 6 -1.</_>
        <_>
          0 24 26 3 2.</_></rects>
      <tilted>0</tilted></_>
    <_>
      <rects>
        <_>
          0 24 27 6 -1.</_>
        <_>
          0 27 27 3 2.</_></rects>
      <tilted>0</tilted></_>
    <_>
      <rects>
        <_>
          0 26 22 4 -1.</_>
        <_>
          0 28 22 2 2.</_></rects>
      <tilted>0</tilted></_>
    <_>
      <rects>
        <_>
          1 1 3 6 -1.</_>
        <_>
          1 3 3 2 3.</_></rects>
      <tilted>0</tilted></_>
    <_>
      <rects>
        <_>
          1 27 27 3 -1.</_>
        <_>
          10 27 9 3 3.</_></rects>
      <tilted>0</tilted></_>
    <_>
      <rects>
        <_>
          2 5 26 4 -1.</_>
        <_>
          15 5 13 4 2.</_></rects>
      <tilted>0</tilted></_>
    <_>
      <rects>
        <_>
          2 8 9 8 -1.</_>
        <_>
          2 12 9 4 2.</_></rects>
      <tilted>0</tilted></_>
    <_>
      <rects>
        <_>
          2 12 1 4 -1.</_>
        <_>
          2 14 1 2 2.</_></rects>
      <tilted>0</tilted></_>
    <_>
      <rects>
        <_>
          2 18 28 10 -1.</_>
        <_>
          2 18 14 5 2.</_>
        <_>
          16 23 14 5 2.</_></rects>
      <tilted>0</tilted></_>
    <_>
      <rects>
        <_>
          2 24 22 6 -1.</_>
        <_>
          2 27 22 3 2.</_></rects>
      <tilted>0</tilted></_>
    <_>
      <rects>
        <_>
          3 5 9 1 -1.</_>
        <_>
          6 5 3 1 3.</_></rects>
      <tilted>0</tilted></_>
    <_>
      <rects>
        <_>
          3 11 17 12 -1.</_>
        <_>
          3 15 17 4 3.</_></rects>
      <tilted>0</tilted></_>
    <_>
      <rects>
        <_>
          3 16 24 1 -1.</_>
        <_>
          11 16 8 1 3.</_></rects>
      <tilted>0</tilted></_>
    <_>
      <rects>
        <_>
          3 28 6 2 -1.</_>
        <_>
          3 29 6 1 2.</_></rects>
      <tilted>0</tilted></_>
    <_>
      <rects>
        <_>
          4 9 10 13 -1.</_>
        <_>
          9 9 5 13 2.</_></rects>
      <tilted>0</tilted></_>
    <_>
      <rects>
        <_>
          4 10 1 15 -1.</_>
        <_>
          4 15 1 5 3.</_></rects>
      <tilted>0</tilted></_>
    <_>
      <rects>
        <_>
          4 12 24 17 -1.</_>
        <_>
          12 12 8 17 3.</_></rects>
      <tilted>0</tilted></_>
    <_>
      <rects>
        <_>
          4 14 20 15 -1.</_>
        <_>
          4 19 20 5 3.</_></rects>
      <tilted>0</tilted></_>
    <_>
      <rects>
        <_>
          4 15 15 1 -1.</_>
        <_>
          9 15 5 1 3.</_></rects>
      <tilted>0</tilted></_>
    <_>
      <rects>
        <_>
          4 18 24 1 -1.</_>
        <_>
          16 18 12 1 2.</_></rects>
      <tilted>0</tilted></_>
    <_>
      <rects>
        <_>
          5 4 24 10 -1.</_>
        <_>
          13 4 8 10 3.</_></rects>
      <tilted>0</tilted></_>
    <_>
      <rects>
        <_>
          5 9 20 6 -1.</_>
        <_>
          5 11 20 2 3.</_></rects>
      <tilted>0</tilted></_>
    <_>
      <rects>
        <_>
          5 14 8 16 -1.</_>
        <_>
          5 14 4 8 2.</_>
        <_>
          9 22 4 8 2.</_></rects>
      <tilted>0</tilted></_>
    <_>
      <rects>
        <_>
          5 15 21 4 -1.</_>
        <_>
          12 15 7 4 3.</_></rects>
      <tilted>0</tilted></_>
    <_>
      <rects>
        <_>
          5 15 25 4 -1.</_>
        <_>
          5 17 25 2 2.</_></rects>
      <tilted>0</tilted></_>
    <_>
      <rects>
        <_>
          6 0 5 10 -1.</_>
        <_>
          6 5 5 5 2.</_></rects>
      <tilted>0</tilted></_>
    <_>
      <rects>
        <_>
          6 0 18 7 -1.</_>
        <_>
          12 0 6 7 3.</_></rects>
      <tilted>0</tilted></_>
    <_>
      <rects>
        <_>
          6 4 24 14 -1.</_>
        <_>
          6 4 12 7 2.</_>
        <_>
          18 11 12 7 2.</_></rects>
      <tilted>0</tilted></_>
    <_>
      <rects>
        <_>
          6 17 21 1 -1.</_>
        <_>
          13 17 7 1 3.</_></rects>
      <tilted>0</tilted></_>
    <_>
      <rects>
        <_>
          6 19 8 4 -1.</_>
        <_>
          6 19 4 2 2.</_>
        <_>
          10 21 4 2 2.</_></rects>
      <tilted>0</tilted></_>
    <_>
      <rects>
        <_>
          6 22 24 6 -1.</_>
        <_>
          6 22 12 3 2.</_>
        <_>
          18 25 12 3 2.</_></rects>
      <tilted>0</tilted></_>
    <_>
      <rects>
        <_>
          6 26 2 2 -1.</_>
        <_>
          7 26 1 2 2.</_></rects>
      <tilted>0</tilted></_>
    <_>
      <rects>
        <_>
          7 9 16 9 -1.</_>
        <_>
          7 12 16 3 3.</_></rects>
      <tilted>0</tilted></_>
    <_>
      <rects>
        <_>
          7 24 2 6 -1.</_>
        <_>
          7 27 2 3 2.</_></rects>
      <tilted>0</tilted></_>
    <_>
      <rects>
        <_>
          7 24 16 4 -1.</_>
        <_>
          7 24 8 2 2.</_>
        <_>
          15 26 8 2 2.</_></rects>
      <tilted>0</tilted></_>
    <_>
      <rects>
        <_>
          8 8 3 3 -1.</_>
        <_>
          9 8 1 3 3.</_></rects>
      <tilted>0</tilted></_>
    <_>
      <rects>
        <_>
          8 17 6 3 -1.</_>
        <_>
          11 17 3 3 2.</_></rects>
      <tilted>0</tilted></_>
    <_>
      <rects>
        <_>
          8 17 4 2 -1.</_>
        <_>
          8 18 4 1 2.</_></rects>
      <tilted>0</tilted></_>
    <_>
      <rects>
        <_>
          9 2 1 4 -1.</_>
        <_>
          9 4 1 2 2.</_></rects>
      <tilted>0</tilted></_>
    <_>
      <rects>
        <_>
          9 19 2 2 -1.</_>
        <_>
          9 20 2 1 2.</_></rects>
      <tilted>0</tilted></_>
    <_>
      <rects>
        <_>
          9 19 4 2 -1.</_>
        <_>
          9 20 4 1 2.</_></rects>
      <tilted>0</tilted></_>
    <_>
      <rects>
        <_>
          9 20 9 10 -1.</_>
        <_>
          9 25 9 5 2.</_></rects>
      <tilted>0</tilted></_>
    <_>
      <rects>
        <_>
          9 21 6 3 -1.</_>
        <_>
          11 21 2 3 3.</_></rects>
      <tilted>0</tilted></_>
    <_>
      <rects>
        <_>
          10 7 1 22 -1.</_>
        <_>
          10 18 1 11 2.</_></rects>
      <tilted>0</tilted></_>
    <_>
      <rects>
        <_>
          10 16 12 12 -1.</_>
        <_>
          10 20 12 4 3.</_></rects>
      <tilted>0</tilted></_>
    <_>
      <rects>
        <_>
          11 0 15 3 -1.</_>
        <_>
          16 0 5 3 3.</_></rects>
      <tilted>0</tilted></_>
    <_>
      <rects>
        <_>
          11 5 8 10 -1.</_>
        <_>
          11 10 8 5 2.</_></rects>
      <tilted>0</tilted></_>
    <_>
      <rects>
        <_>
          11 11 16 12 -1.</_>
        <_>
          11 17 16 6 2.</_></rects>
      <tilted>0</tilted></_>
    <_>
      <rects>
        <_>
          11 12 13 8 -1.</_>
        <_>
          11 16 13 4 2.</_></rects>
      <tilted>0</tilted></_>
    <_>
      <rects>
        <_>
          11 16 8 1 -1.</_>
        <_>
          15 16 4 1 2.</_></rects>
      <tilted>0</tilted></_>
    <_>
      <rects>
        <_>
          11 17 2 2 -1.</_>
        <_>
          11 18 2 1 2.</_></rects>
      <tilted>0</tilted></_>
    <_>
      <rects>
        <_>
          11 18 3 2 -1.</_>
        <_>
          11 19 3 1 2.</_></rects>
      <tilted>0</tilted></_>
    <_>
      <rects>
        <_>
          12 4 16 20 -1.</_>
        <_>
          12 4 8 10 2.</_>
        <_>
          20 14 8 10 2.</_></rects>
      <tilted>0</tilted></_>
    <_>
      <rects>
        <_>
          12 17 8 1 -1.</_>
        <_>
          16 17 4 1 2.</_></rects>
      <tilted>0</tilted></_>
    <_>
      <rects>
        <_>
          12 22 2 2 -1.</_>
        <_>
          12 23 2 1 2.</_></rects>
      <tilted>0</tilted></_>
    <_>
      <rects>
        <_>
          13 14 4 14 -1.</_>
        <_>
          15 14 2 14 2.</_></rects>
      <tilted>0</tilted></_>
    <_>
      <rects>
        <_>
          13 14 15 3 -1.</_>
        <_>
          13 15 15 1 3.</_></rects>
      <tilted>0</tilted></_>
    <_>
      <rects>
        <_>
          13 15 3 2 -1.</_>
        <_>
          13 16 3 1 2.</_></rects>
      <tilted>0</tilted></_>
    <_>
      <rects>
        <_>
          13 17 2 2 -1.</_>
        <_>
          13 18 2 1 2.</_></rects>
      <tilted>0</tilted></_>
    <_>
      <rects>
        <_>
          13 19 4 6 -1.</_>
        <_>
          13 21 4 2 3.</_></rects>
      <tilted>0</tilted></_>
    <_>
      <rects>
        <_>
          13 19 16 3 -1.</_>
        <_>
          21 19 8 3 2.</_></rects>
      <tilted>0</tilted></_>
    <_>
      <rects>
        <_>
          13 21 1 2 -1.</_>
        <_>
          13 22 1 1 2.</_></rects>
      <tilted>0</tilted></_>
    <_>
      <rects>
        <_>
          13 22 5 3 -1.</_>
        <_>
          13 23 5 1 3.</_></rects>
      <tilted>0</tilted></_>
    <_>
      <rects>
        <_>
          13 23 3 2 -1.</_>
        <_>
          13 24 3 1 2.</_></rects>
      <tilted>0</tilted></_>
    <_>
      <rects>
        <_>
          14 12 14 5 -1.</_>
        <_>
          21 12 7 5 2.</_></rects>
      <tilted>0</tilted></_>
    <_>
      <rects>
        <_>
          14 15 1 2 -1.</_>
        <_>
          14 16 1 1 2.</_></rects>
      <tilted>0</tilted></_>
    <_>
      <rects>
        <_>
          14 19 3 2 -1.</_>
        <_>
          14 20 3 1 2.</_></rects>
      <tilted>0</tilted></_>
    <_>
      <rects>
        <_>
          15 1 14 26 -1.</_>
        <_>
          22 1 7 26 2.</_></rects>
      <tilted>0</tilted></_>
    <_>
      <rects>
        <_>
          15 7 1 2 -1.</_>
        <_>
          15 8 1 1 2.</_></rects>
      <tilted>0</tilted></_>
    <_>
      <rects>
        <_>
          15 14 15 16 -1.</_>
        <_>
          15 22 15 8 2.</_></rects>
      <tilted>0</tilted></_>
    <_>
      <rects>
        <_>
          15 24 2 4 -1.</_>
        <_>
          15 26 2 2 2.</_></rects>
      <tilted>0</tilted></_>
    <_>
      <rects>
        <_>
          16 3 3 2 -1.</_>
        <_>
          16 4 3 1 2.</_></rects>
      <tilted>0</tilted></_>
    <_>
      <rects>
        <_>
          16 12 9 6 -1.</_>
        <_>
          16 15 9 3 2.</_></rects>
      <tilted>0</tilted></_>
    <_>
      <rects>
        <_>
          16 19 13 8 -1.</_>
        <_>
          16 23 13 4 2.</_></rects>
      <tilted>0</tilted></_>
    <_>
      <rects>
        <_>
          16 20 1 2 -1.</_>
        <_>
          16 21 1 1 2.</_></rects>
      <tilted>0</tilted></_>
    <_>
      <rects>
        <_>
          16 22 2 2 -1.</_>
        <_>
          16 23 2 1 2.</_></rects>
      <tilted>0</tilted></_>
    <_>
      <rects>
        <_>
          16 24 2 1 -1.</_>
        <_>
          17 24 1 1 2.</_></rects>
      <tilted>0</tilted></_>
    <_>
      <rects>
        <_>
          17 18 2 8 -1.</_>
        <_>
          17 18 1 4 2.</_>
        <_>
          18 22 1 4 2.</_></rects>
      <tilted>0</tilted></_>
    <_>
      <rects>
        <_>
          17 19 2 2 -1.</_>
        <_>
          17 20 2 1 2.</_></rects>
      <tilted>0</tilted></_>
    <_>
      <rects>
        <_>
          17 24 4 6 -1.</_>
        <_>
          17 27 4 3 2.</_></rects>
      <tilted>0</tilted></_>
    <_>
      <rects>
        <_>
          18 0 12 11 -1.</_>
        <_>
          24 0 6 11 2.</_></rects>
      <tilted>0</tilted></_>
    <_>
      <rects>
        <_>
          18 5 10 3 -1.</_>
        <_>
          18 6 10 1 3.</_></rects>
      <tilted>0</tilted></_>
    <_>
      <rects>
        <_>
          18 18 2 8 -1.</_>
        <_>
          18 18 1 4 2.</_>
        <_>
          19 22 1 4 2.</_></rects>
      <tilted>0</tilted></_>
    <_>
      <rects>
        <_>
          18 20 3 8 -1.</_>
        <_>
          18 24 3 4 2.</_></rects>
      <tilted>0</tilted></_>
    <_>
      <rects>
        <_>
          18 21 4 2 -1.</_>
        <_>
          18 21 2 1 2.</_>
        <_>
          20 22 2 1 2.</_></rects>
      <tilted>0</tilted></_>
    <_>
      <rects>
        <_>
          19 19 3 9 -1.</_>
        <_>
          19 22 3 3 3.</_></rects>
      <tilted>0</tilted></_>
    <_>
      <rects>
        <_>
          19 25 2 1 -1.</_>
        <_>
          20 25 1 1 2.</_></rects>
      <tilted>0</tilted></_>
    <_>
      <rects>
        <_>
          20 18 1 2 -1.</_>
        <_>
          20 19 1 1 2.</_></rects>
      <tilted>0</tilted></_>
    <_>
      <rects>
        <_>
          20 20 4 2 -1.</_>
        <_>
          20 21 4 1 2.</_></rects>
      <tilted>0</tilted></_>
    <_>
      <rects>
        <_>
          21 3 9 4 -1.</_>
        <_>
          21 5 9 2 2.</_></rects>
      <tilted>0</tilted></_>
    <_>
      <rects>
        <_>
          21 20 4 8 -1.</_>
        <_>
          21 24 4 4 2.</_></rects>
      <tilted>0</tilted></_>
    <_>
      <rects>
        <_>
          22 17 5 6 -1.</_>
        <_>
          22 19 5 2 3.</_></rects>
      <tilted>0</tilted></_>
    <_>
      <rects>
        <_>
          22 20 5 10 -1.</_>
        <_>
          22 25 5 5 2.</_></rects>
      <tilted>0</tilted></_>
    <_>
      <rects>
        <_>
          22 22 8 6 -1.</_>
        <_>
          22 25 8 3 2.</_></rects>
      <tilted>0</tilted></_>
    <_>
      <rects>
        <_>
          23 2 4 2 -1.</_>
        <_>
          23 3 4 1 2.</_></rects>
      <tilted>0</tilted></_>
    <_>
      <rects>
        <_>
          23 16 7 14 -1.</_>
        <_>
          23 23 7 7 2.</_></rects>
      <tilted>0</tilted></_>
    <_>
      <rects>
        <_>
          24 23 5 6 -1.</_>
        <_>
          24 26 5 3 2.</_></rects>
      <tilted>0</tilted></_>
    <_>
      <rects>
        <_>
          25 18 4 12 -1.</_>
        <_>
          27 18 2 12 2.</_></rects>
      <tilted>0</tilted></_>
    <_>
      <rects>
        <_>
          25 26 2 4 -1.</_>
        <_>
          25 28 2 2 2.</_></rects>
      <tilted>0</tilted></_>
    <_>
      <rects>
        <_>
          26 22 1 3 -1.</_>
        <_>
          26 23 1 1 3.</_></rects>
      <tilted>0</tilted></_>
    <_>
      <rects>
        <_>
          27 0 1 2 -1.</_>
        <_>
          27 1 1 1 2.</_></rects>
      <tilted>0</tilted></_></features></cascade>
</opencv_storage>
